3.159067630767822266e-01
5.088357329368591309e-01
2.480086684226989746e-01
2.565459907054901123e-02
4.273527115583419800e-02
2.907356619834899902e-01
-3.681244850158691406e-01
-4.056364297866821289e-01
-7.587142586708068848e-01
1.815394610166549683e-01
-1.213046908378601074e-02
1.878377795219421387e-02
-4.820214807987213135e-01
6.016860604286193848e-01
-7.024767994880676270e-01
6.315102577209472656e-01
-3.312333822250366211e-01
-5.119937658309936523e-01
-8.587837219238281250e-03
-9.649229049682617188e-02
-6.490576267242431641e-01
-4.824125766754150391e-01
-4.881687760353088379e-01
-1.169899940490722656e+00
-1.102890491485595703e+00
2.555231750011444092e-01
-9.896300435066223145e-01
-9.946987032890319824e-03
-9.427304267883300781e-01
3.550873994827270508e-01
7.320305705070495605e-01
-2.660907506942749023e-01
-7.601451873779296875e-01
-6.253069639205932617e-01
-7.215871214866638184e-01
-8.428937196731567383e-01
-2.510891258716583252e-01
-5.503767728805541992e-01
-1.480717509984970093e-01
-5.729162693023681641e-01
-6.270073652267456055e-01
-4.258945286273956299e-01
-5.877986550331115723e-01
9.492804855108261108e-02
-1.761603951454162598e-01
2.060348838567733765e-01
-1.007262468338012695e-01
4.568006992340087891e-01
1.082595065236091614e-02
-6.233685016632080078e-01
-6.390933990478515625e-01
-7.707237005233764648e-01
-6.164688467979431152e-01
2.544689774513244629e-01
-9.883797168731689453e-01
-7.461461424827575684e-01
-1.151684284210205078e+00
-1.061136722564697266e+00
-7.407865524291992188e-01
-7.768145203590393066e-02
-3.840160965919494629e-01
-9.851182103157043457e-01
-6.822630167007446289e-01
-8.599144220352172852e-01
3.968338966369628906e-01
7.165926694869995117e-02
1.487851291894912720e-01
4.238145947456359863e-01
-4.681066274642944336e-01
-1.708264648914337158e-01
2.018492221832275391e-01
-6.055832505226135254e-01
-7.351745963096618652e-01
4.582576751708984375e-01
-5.750467777252197266e-01
-2.968425452709197998e-01
2.546360492706298828e-01
1.408757120370864868e-01
-8.194845914840698242e-01
4.922887682914733887e-02
-2.301796972751617432e-01
-1.034545898437500000e-02
-9.690389633178710938e-01
-4.261645078659057617e-01
-6.366728544235229492e-01
-4.808303713798522949e-01
-6.759946942329406738e-01
-3.483105599880218506e-01
8.396245837211608887e-01
1.621141135692596436e-01
-4.963806867599487305e-01
3.065798878669738770e-01
-6.898223161697387695e-01
-1.660145819187164307e-03
-1.429076939821243286e-01
-9.031395912170410156e-01
-7.454367876052856445e-01
-4.607318937778472900e-01
-1.425681114196777344e-01
-2.912072241306304932e-01
1.575288474559783936e-01
-6.812244653701782227e-03
-1.167614459991455078e+00
-2.651231884956359863e-01
-6.814266443252563477e-01
7.831249237060546875e-01
-6.816620826721191406e-01
-7.311238050460815430e-01
5.661483407020568848e-01
-1.020881175994873047e+00
-3.391620218753814697e-01
-2.975645661354064941e-01
3.045825064182281494e-01
1.207622408866882324e+00
5.550789833068847656e-01
2.233745902776718140e-01
-3.125764057040214539e-02
-3.135737478733062744e-01
-2.755568325519561768e-01
-6.090716719627380371e-01
1.714178323745727539e-01
-9.177628159523010254e-01
-5.772610902786254883e-01
4.839817881584167480e-01
-6.731812357902526855e-01
-7.372653484344482422e-01
-9.454337358474731445e-01
5.141171813011169434e-02
2.896531820297241211e-01
-5.161930918693542480e-01
-7.109013199806213379e-02
-2.158908694982528687e-01
-5.881859660148620605e-01
-1.354360133409500122e-01
-1.406858116388320923e-02
1.257388293743133545e-01
4.221407175064086914e-01
-5.198376178741455078e-01
-5.752912163734436035e-01
-7.094291448593139648e-01
-9.178216457366943359e-01
-2.028971761465072632e-01
-4.436740875244140625e-01
-2.703495323657989502e-01
-1.190926730632781982e-01
-5.137540400028228760e-02
1.096935749053955078e+00
-5.285516977310180664e-01
-5.770047903060913086e-01
-7.264077067375183105e-01
-8.158450126647949219e-01
-3.766776025295257568e-01
-6.066671013832092285e-01
-1.297918856143951416e-01
7.052831053733825684e-01
-5.222899317741394043e-01
1.553534418344497681e-01
8.171752095222473145e-02
-7.022318840026855469e-01
-6.128081679344177246e-01
-3.744667768478393555e-01
-4.872373044490814209e-01
-8.776002526283264160e-01
-5.141856670379638672e-01
-8.609278202056884766e-01
2.344839274883270264e-01
-7.844795584678649902e-01
-1.040509700775146484e+00
-3.526148200035095215e-01
-5.404800176620483398e-01
-3.587898612022399902e-02
-5.399442911148071289e-01
3.539981842041015625e-01
-6.091750860214233398e-01
2.318699657917022705e-01
5.813494324684143066e-02
-5.965732932090759277e-01
-5.613939762115478516e-01
-3.590099215507507324e-01
-8.949168771505355835e-02
-7.402030229568481445e-01
-7.878283262252807617e-01
1.731611341238021851e-01
-2.029371261596679688e-02
-4.303755164146423340e-01
2.361078560352325439e-02
5.304177850484848022e-02
-7.244966030120849609e-01
-9.137570858001708984e-01
-1.190785408020019531e+00
-7.623507976531982422e-01
-9.290158152580261230e-01
-6.859033107757568359e-01
3.759483695030212402e-01
-8.064947277307510376e-02
-1.106423020362854004e+00
5.053432285785675049e-02
3.546504974365234375e-01
-5.429939031600952148e-01
-6.690869331359863281e-01
-6.597532033920288086e-01
-5.339428782463073730e-01
2.715727984905242920e-01
4.255965054035186768e-01
7.754894495010375977e-01
-7.286230325698852539e-01
-1.098839402198791504e+00
-3.877006471157073975e-01
-1.142864584922790527e+00
5.445302277803421021e-02
-6.360593438148498535e-01
3.600430488586425781e-01
2.520405650138854980e-01
-6.763005256652832031e-01
3.415344357490539551e-01
4.848088622093200684e-01
-2.393824160099029541e-01
-6.237666606903076172e-01
5.155468583106994629e-01
-1.014614939689636230e+00
-8.508436083793640137e-01
1.674661487340927124e-01
-3.756420612335205078e-01
-2.706884145736694336e-01
-1.045400857925415039e+00
-5.625689029693603516e-01
-4.944818839430809021e-02
4.076115787029266357e-03
-8.373886346817016602e-01
8.697658777236938477e-02
-8.048619031906127930e-01
-3.556619286537170410e-01
-2.226609140634536743e-01
-7.318878173828125000e-01
-1.104883313179016113e+00
3.001708984375000000e-01
-7.723095417022705078e-01
-5.263304710388183594e-01
-1.004888266324996948e-01
-5.286533832550048828e-01
4.393705725669860840e-01
-1.025981068611145020e+00
6.438353657722473145e-01
3.104716539382934570e-02
-5.569985508918762207e-01
-6.545580029487609863e-01
-5.206094384193420410e-01
-3.510747253894805908e-01
-5.558521151542663574e-01
-8.713867664337158203e-01
-2.194952219724655151e-01
-5.406779050827026367e-02
1.765121519565582275e-01
-8.640719652175903320e-01
-5.659078359603881836e-01
-9.025887399911880493e-02
1.145674288272857666e-01
-4.691762924194335938e-01
-4.672507345676422119e-01
-3.197461366653442383e-03
2.872318029403686523e-03
-3.272523283958435059e-01
-9.738633632659912109e-01
1.502547860145568848e-01
2.013565599918365479e-01
-9.526919126510620117e-01
-3.891868591308593750e-01
2.869711816310882568e-01
-7.554811239242553711e-01
-5.426368862390518188e-02
-5.577092245221138000e-02
3.489636778831481934e-01
3.155297040939331055e-02
-2.239816933870315552e-01
-4.150545597076416016e-01
-1.075087547302246094e+00
1.019626617431640625e+00
-8.806313872337341309e-01
-3.222631216049194336e-01
-5.014355778694152832e-01
-4.695758819580078125e-01
-1.077590137720108032e-01
-3.267772495746612549e-02
-4.894682765007019043e-02
6.736239790916442871e-01
-1.560692191123962402e-01
2.909104228019714355e-01
-4.901195168495178223e-01
-3.059562444686889648e-01
-1.326379060745239258e+00
-8.799694776535034180e-01
-5.996669530868530273e-01
5.804634466767311096e-02
-7.293424606323242188e-01
-5.040991902351379395e-01
-4.710860848426818848e-01
-7.096283435821533203e-01
-6.017947196960449219e-01
2.639959752559661865e-01
-9.106376767158508301e-01
-7.271149754524230957e-02
-3.278022408485412598e-01
-2.487498223781585693e-01
1.610735058784484863e-02
-6.313128471374511719e-01
-1.040662646293640137e+00
-4.891716837882995605e-01
-8.656749129295349121e-02
-8.233615159988403320e-01
-9.100508689880371094e-01
-8.511661291122436523e-01
1.788209378719329834e-01
-5.009163618087768555e-01
3.281128406524658203e-02
1.640579998493194580e-01
1.957084834575653076e-01
7.936652898788452148e-01
-3.902473449707031250e-01
-7.939302921295166016e-01
-3.021239042282104492e-01
-1.350779175758361816e+00
-4.014650881290435791e-01
-2.702657878398895264e-01
5.653427541255950928e-02
-3.935289382934570312e-01
-5.399190187454223633e-01
-7.348002195358276367e-01
-8.716741800308227539e-01
1.325003802776336670e-02
-9.468302726745605469e-01
-1.056110143661499023e+00
2.596559524536132812e-01
-2.799628376960754395e-01
-6.365228295326232910e-01
-2.643983960151672363e-01
1.231959611177444458e-01
-6.545270681381225586e-01
-4.583827406167984009e-02
-7.321342229843139648e-01
5.574858188629150391e-02
4.456545412540435791e-01
4.600989818572998047e-02
-1.190353274345397949e+00
-5.106976032257080078e-01
-6.234430074691772461e-01
-1.060403108596801758e+00
-1.030743122100830078e+00
-7.542024850845336914e-01
-7.242120504379272461e-01
-4.524344801902770996e-01
-2.121935784816741943e-01
-6.346661597490310669e-02
2.829172015190124512e-01
3.233397305011749268e-01
3.725980818271636963e-01
-6.687368154525756836e-01
-1.068038225173950195e+00
-2.781772753223776817e-03
-7.947845011949539185e-02
-5.357012152671813965e-01
-7.050269842147827148e-01
-3.890775442123413086e-01
-4.560365974903106689e-01
2.245478332042694092e-01
7.899887114763259888e-02
-2.503695487976074219e-01
3.203445076942443848e-01
-7.072406411170959473e-01
-8.109736442565917969e-01
-6.817486286163330078e-01
1.367823332548141479e-01
-9.065402746200561523e-01
-1.244293928146362305e+00
-5.561337471008300781e-01
-6.666897535324096680e-01
-1.665472984313964844e-01
-6.907488107681274414e-01
-3.610097765922546387e-01
-5.138723850250244141e-01
-3.388906717300415039e-01
-6.313487887382507324e-01
-6.088296175003051758e-01
-4.660372734069824219e-01
3.491415977478027344e-01
4.638064503669738770e-01
8.671060204505920410e-02
2.560737133026123047e-01
-2.792775928974151611e-01
5.937191843986511230e-02
2.798956036567687988e-01
-6.398640275001525879e-01
-8.471884727478027344e-01
-1.031340241432189941e+00
-3.585380017757415771e-01
-2.162981033325195312e-01
-5.318731665611267090e-01
7.785315513610839844e-01
2.187309265136718750e-01
-2.679584324359893799e-01
-3.535960316658020020e-01
-6.490433216094970703e-01
-5.637007951736450195e-01
-6.211323142051696777e-01
-1.459082514047622681e-01
3.490892648696899414e-01
-2.651409208774566650e-01
-5.707028880715370178e-02
-8.150311708450317383e-01
-1.083663940429687500e+00
6.787458658218383789e-01
3.840698301792144775e-01
1.029756546020507812e+00
1.944398134946823120e-01
-1.077112913131713867e+00
-1.140229940414428711e+00
-8.523634076118469238e-01
-1.050468087196350098e+00
-9.130252599716186523e-01
-4.626561999320983887e-01
5.069670677185058594e-01
-8.126317262649536133e-01
-1.853730976581573486e-01
-7.096059322357177734e-01
6.554285287857055664e-01
4.628929197788238525e-01
9.234564304351806641e-01
-1.064165309071540833e-01
-2.865434288978576660e-01
-2.903968691825866699e-01
4.238074123859405518e-01
1.761513650417327881e-01
-1.249622941017150879e+00
-9.994962215423583984e-01
-8.786653280258178711e-01
-8.620623350143432617e-01
-9.957166910171508789e-01
-3.145110905170440674e-01
-1.009746909141540527e+00
-1.803482472896575928e-01
-5.588155984878540039e-01
4.264079332351684570e-01
-2.340826094150543213e-01
-6.371308565139770508e-01
-5.028152465820312500e-01
-1.050834536552429199e+00
-9.148073792457580566e-01
6.553739905357360840e-01
6.810803413391113281e-01
-6.004291176795959473e-01
-8.118915557861328125e-02
-2.389907836914062500e-01
4.719246625900268555e-01
7.004758715629577637e-01
5.701821446418762207e-01
-1.621238440275192261e-01
5.206313729286193848e-01
3.048916459083557129e-01
-2.987374663352966309e-01
-5.139889121055603027e-01
-4.037622809410095215e-01
-1.104200124740600586e+00
-2.196568846702575684e-01
-2.936878800392150879e-01
-3.196479976177215576e-01
-2.223158478736877441e-01
5.751740932464599609e-01
-1.636627614498138428e-01
-9.341949969530105591e-02
-2.380250692367553711e-01
7.125607132911682129e-02
-9.599264264106750488e-01
-4.964303076267242432e-01
-5.805396437644958496e-01
-7.700061798095703125e-02
-3.677780330181121826e-01
-4.831071496009826660e-01
6.287744641304016113e-02
-3.724460005760192871e-01
-1.316377222537994385e-01
7.450108230113983154e-02
-1.321839988231658936e-01
1.385074257850646973e-01
-7.661284804344177246e-01
-1.172148466110229492e+00
-1.100551128387451172e+00
-5.205837488174438477e-01
7.030498981475830078e-02
1.606591641902923584e-01
3.617622256278991699e-01
-6.162139773368835449e-01
3.273371458053588867e-01
2.834777832031250000e-01
-9.039223194122314453e-03
-3.817802965641021729e-01
1.455734074115753174e-01
-4.556350111961364746e-01
3.136353492736816406e-01
1.697843074798583984e-01
8.390367627143859863e-01
-1.335470080375671387e-01
-1.842948794364929199e-02
-8.364745378494262695e-01
-2.644617855548858643e-01
-2.575607597827911377e-01
3.504517674446105957e-02
7.557064294815063477e-03
-2.596450448036193848e-01
2.182939350605010986e-01
-5.301664471626281738e-01
2.359718680381774902e-01
6.713587045669555664e-02
-5.814348161220550537e-02
-5.427253842353820801e-01
-4.740447998046875000e-01
-9.968388825654983521e-02
-2.146725654602050781e-01
9.925947189331054688e-01
-3.275413513183593750e-01
-2.854189276695251465e-01
3.436804413795471191e-01
-9.698232412338256836e-01
-7.366600036621093750e-01
-2.789799273014068604e-01
-2.791787981986999512e-01
-5.747148394584655762e-01
-8.770920038223266602e-01
-7.200833559036254883e-01
-9.284078478813171387e-01
-3.216860294342041016e-01
-1.005852222442626953e+00
-3.277542889118194580e-01
4.080177545547485352e-01
-9.574552625417709351e-02
-5.387840270996093750e-01
-2.756519317626953125e-01
-4.025236070156097412e-01
-1.015631556510925293e+00
-3.298808932304382324e-01
2.536943554878234863e-02
2.950173914432525635e-01
2.169147431850433350e-01
-8.475331068038940430e-01
-7.349578142166137695e-01
-5.191758275032043457e-01
-8.163459300994873047e-01
2.041990160942077637e-01
-1.382019817829132080e-01
1.450432240962982178e-01
3.051403164863586426e-01
-1.543222367763519287e-01
-5.889198184013366699e-01
-3.479125499725341797e-01
-5.840345025062561035e-01
-8.336656689643859863e-01
-6.752562522888183594e-01
-7.814693450927734375e-01
-6.282337307929992676e-01
-8.833538293838500977e-01
7.488848567008972168e-01
-6.034451723098754883e-01
-4.396276175975799561e-01
-5.829982757568359375e-01
7.566657662391662598e-02
-1.113545656204223633e+00
-1.065328001976013184e+00
-6.854280233383178711e-01
1.500184535980224609e-01
6.755262613296508789e-03
2.077085673809051514e-01
-7.249178886413574219e-01
-1.168464660644531250e+00
-1.303283452987670898e+00
-3.104667067527770996e-01
-6.340700387954711914e-01
6.365573406219482422e-01
2.415795624256134033e-01
3.354923725128173828e-01
-7.967579364776611328e-01
-8.777327537536621094e-01
-9.876224398612976074e-02
-1.560676395893096924e-01
-2.024578899145126343e-01
-1.048491954803466797e+00
-8.373520970344543457e-01
4.662461876869201660e-01
-1.095309853553771973e-02
2.799934744834899902e-01
2.884259447455406189e-02
-6.288886070251464844e-01
-5.194410085678100586e-01
6.309853196144104004e-01
-5.550213456153869629e-01
2.192517369985580444e-01
3.306097686290740967e-01
-7.694556713104248047e-01
1.019713878631591797e-01
2.016589045524597168e-01
9.582030773162841797e-02
-5.627178549766540527e-01
-9.503879547119140625e-01
-4.629529416561126709e-01
-7.585512101650238037e-02
-6.752318143844604492e-01
3.522837162017822266e-01
-2.499456852674484253e-01
-6.713485717773437500e-01
3.660682961344718933e-02
-3.774017691612243652e-01
-2.831186056137084961e-01
-6.674894094467163086e-01
-1.220934689044952393e-01
-2.949160337448120117e-01
-8.020061254501342773e-01
1.888688802719116211e-01
-7.729398012161254883e-01
-2.632525563240051270e-01
-7.213234901428222656e-01
-2.101557254791259766e-01
1.739683151245117188e-01
-2.044007480144500732e-01
1.669176667928695679e-02
-2.674046456813812256e-01
-5.069971084594726562e-02
1.243971437215805054e-01
-8.355095982551574707e-03
-1.999943852424621582e-01
-9.237215518951416016e-01
-5.944624543190002441e-02
-5.603992938995361328e-02
-9.004662036895751953e-01
9.175035357475280762e-02
-3.849467039108276367e-01
-4.965924620628356934e-01
-1.226442009210586548e-01
2.130564749240875244e-01
-4.825499057769775391e-01
-1.965418010950088501e-01
-9.875080585479736328e-01
3.213205933570861816e-02
7.667813897132873535e-01
-9.527096748352050781e-01
4.874577522277832031e-01
3.349711298942565918e-01
3.486819863319396973e-01
-9.638370275497436523e-01
3.765704631805419922e-01
-2.896533012390136719e-01
-2.064950466156005859e-01
-3.274211883544921875e-01
-5.978055000305175781e-01
7.057210803031921387e-02
-3.448861539363861084e-01
-7.427568435668945312e-01
-8.344445377588272095e-03
-1.239736914634704590e+00
-3.326861262321472168e-01
-5.318627357482910156e-01
-8.902509808540344238e-01
-2.773023843765258789e-01
-1.978698745369911194e-02
-4.211815595626831055e-01
1.950797885656356812e-01
-4.284371733665466309e-01
-5.723975896835327148e-01
-2.441399693489074707e-01
7.146877050399780273e-02
-6.630952358245849609e-01
-2.656770348548889160e-01
-4.133643805980682373e-01
-6.822410821914672852e-01
-6.522106528282165527e-01
-5.690503120422363281e-01
-7.819775342941284180e-01
-8.215798139572143555e-01
-7.319711446762084961e-01
-2.719292044639587402e-01
1.495573282241821289e+00
1.074497222900390625e+00
-3.628762662410736084e-01
3.417696058750152588e-02
-9.217542409896850586e-01
-5.414196252822875977e-01
-8.296627402305603027e-01
-4.455396533012390137e-01
-5.230712890625000000e-01
-2.274679988622665405e-01
-2.659230828285217285e-01
-1.141500473022460938e-02
-2.252193689346313477e-01
2.884257435798645020e-01
-1.037476778030395508e+00
6.163890361785888672e-01
5.630927085876464844e-01
-8.419329524040222168e-01
-1.118535518646240234e+00
-1.221747517585754395e+00
-1.226004600524902344e+00
-7.824137210845947266e-01
-1.332826316356658936e-01
-4.079173505306243896e-01
-5.333424210548400879e-01
-3.181283175945281982e-01
7.391015067696571350e-03
-1.013429284095764160e+00
2.194484323263168335e-01
3.574047684669494629e-01
-2.319862246513366699e-01
-7.052707672119140625e-01
-9.507565498352050781e-01
-6.827486157417297363e-01
-7.087603211402893066e-01
-9.977740049362182617e-01
-6.995412111282348633e-01
-6.707997918128967285e-01
-3.598645329475402832e-01
-8.489035964012145996e-01
-2.521587908267974854e-01
-3.103522956371307373e-02
4.629611670970916748e-01
1.190063655376434326e-01
-4.020212888717651367e-01
-1.040693640708923340e+00
-1.619723439216613770e-01
-1.966764628887176514e-01
-1.063565686345100403e-01
-2.147087305784225464e-01
-6.037739291787147522e-02
-7.631920576095581055e-01
2.896319925785064697e-01
-5.808222293853759766e-01
-4.594453573226928711e-01
-9.131315350532531738e-02
-3.352816104888916016e-01
9.232636541128158569e-02
-7.386908680200576782e-02
-7.308203577995300293e-01
-7.520233988761901855e-01
4.430246353149414062e-02
3.490423560142517090e-01
2.885747253894805908e-01
-3.732230961322784424e-01
-3.121541440486907959e-01
7.710011005401611328e-01
-4.914646148681640625e-01
-7.606409192085266113e-01
-8.276584148406982422e-01
-6.478273868560791016e-01
-9.201951026916503906e-01
-1.034788489341735840e+00
-8.676055669784545898e-01
-9.387495517730712891e-01
-7.761557102203369141e-01
-6.680698394775390625e-01
-6.677490472793579102e-01
-8.024692535400390625e-01
-1.129717677831649780e-01
-4.721900224685668945e-01
-2.915354669094085693e-01
-3.600862324237823486e-01
2.022164613008499146e-01
5.440883636474609375e-01
4.769431948661804199e-01
-6.515188217163085938e-01
-2.116918563842773438e-01
-8.674272298812866211e-01
-8.729470372200012207e-01
-4.655835628509521484e-01
-6.384648680686950684e-01
-4.367405176162719727e-01
-9.245835542678833008e-01
-3.407255113124847412e-01
-6.713496446609497070e-01
-5.247298479080200195e-01
-5.491319894790649414e-01
-5.894241929054260254e-01
-1.066625356674194336e+00
-5.987595319747924805e-01
-6.571615338325500488e-01
-2.616619467735290527e-01
-2.111190259456634521e-01
5.540732294321060181e-02
-4.030992984771728516e-01
-3.530667722225189209e-02
9.438797235488891602e-01
-7.486727237701416016e-01
4.979882538318634033e-01
-7.820343971252441406e-01
1.909619569778442383e-01
2.142343223094940186e-01
4.175258874893188477e-01
-7.887280583381652832e-01
2.818672358989715576e-01
-2.427028268575668335e-01
-7.732985615730285645e-01
4.082719981670379639e-02
6.749988794326782227e-01
-5.037115216255187988e-01
1.891632378101348877e-01
4.716037511825561523e-01
3.542654961347579956e-02
-5.140288472175598145e-01
-8.478658199310302734e-01
-4.639036655426025391e-01
-1.057584583759307861e-01
-3.847118616104125977e-01
-1.007621288299560547e+00
-9.349114894866943359e-01
-1.110652834177017212e-01
7.887051105499267578e-01
-1.101594924926757812e+00
-9.880683422088623047e-01
-1.572818309068679810e-01
-7.365674972534179688e-01
2.253961265087127686e-01
-5.383874773979187012e-01
-1.011674404144287109e+00
-6.729736328125000000e-01
-4.116556942462921143e-01
5.902560353279113770e-01
4.018528163433074951e-01
-6.046789884567260742e-02
-4.357037842273712158e-01
-5.148975253105163574e-01
1.925697028636932373e-01
-7.381805181503295898e-01
-6.396086812019348145e-01
-6.740881502628326416e-02
-2.201471477746963501e-03
-4.686157405376434326e-01
-4.903624653816223145e-01
-1.719193756580352783e-01
-1.156028747558593750e+00
-5.041893720626831055e-01
-4.165574908256530762e-01
-9.219117760658264160e-01
-4.028173387050628662e-01
-8.702318072319030762e-01
-5.905655026435852051e-01
4.637859761714935303e-01
5.597581863403320312e-01
8.050957918167114258e-01
-1.155768632888793945e+00
1.340316683053970337e-01
1.094772815704345703e-01
-3.488237857818603516e-01
-4.266484379768371582e-01
3.301343321800231934e-02
-4.032827615737915039e-01
-3.449819087982177734e-01
7.489733695983886719e-01
2.027257531881332397e-02
-9.506337642669677734e-01
-7.390936613082885742e-01
-6.388665437698364258e-01
-2.830427587032318115e-01
7.394037842750549316e-01
-2.667857110500335693e-01
-9.648523330688476562e-01
-1.223817944526672363e+00
-5.093016624450683594e-01
-8.510862588882446289e-01
-3.880075812339782715e-01
-8.048394918441772461e-01
-7.318175435066223145e-01
-7.973639965057373047e-01
-7.101068496704101562e-01
1.495503336191177368e-01
-4.377791583538055420e-01
5.632577538490295410e-01
3.822025954723358154e-01
6.447731256484985352e-01
4.880888462066650391e-01
-2.754421532154083252e-02
5.146108567714691162e-03
4.004450738430023193e-01
6.292483806610107422e-01
4.742065370082855225e-01
-1.655629277229309082e-01
5.161253809928894043e-01
-2.908435165882110596e-01
-5.010616034269332886e-02
-6.771903038024902344e-01
1.058486104011535645e-02
4.677459001541137695e-01
-1.565740853548049927e-01
9.251743555068969727e-02
9.987514466047286987e-02
-7.151213288307189941e-02
-3.434283137321472168e-01
-5.206362009048461914e-01
-8.260624408721923828e-01
4.260758757591247559e-01
-1.024647116661071777e+00
-2.532428503036499023e-02
-6.626311540603637695e-01
-3.872101306915283203e-01
-4.399691522121429443e-01
1.468441784381866455e-01
-2.195213139057159424e-01
-9.192319959402084351e-02
-6.049370169639587402e-01
-3.134742379188537598e-02
-1.832485198974609375e-03
1.819714903831481934e-01
-3.541858792304992676e-01
-4.903445243835449219e-01
-7.346768975257873535e-01
-6.807352304458618164e-01
-5.957849025726318359e-01
-8.541568517684936523e-01
5.375983715057373047e-01
2.047999799251556396e-01
6.313244998455047607e-02
-1.199475646018981934e+00
-7.024012804031372070e-01
9.319823980331420898e-01
-1.039207458496093750e+00
1.435579061508178711e-01
-1.751846075057983398e-01
8.327648043632507324e-02
-2.259825021028518677e-01
-6.910111308097839355e-01
-5.816532373428344727e-01
-2.219956517219543457e-01
-1.219123005867004395e+00
-1.278326272964477539e+00
2.695665061473846436e-01
-5.315437912940979004e-01
-5.770804882049560547e-01
6.504691243171691895e-01
-6.499782800674438477e-01
-9.083957672119140625e-01
4.339943826198577881e-02
-3.284525275230407715e-01
2.335902750492095947e-01
-5.648424029350280762e-01
-8.006526827812194824e-01
-4.345867037773132324e-01
1.316630840301513672e-02
5.505223274230957031e-01
-9.715704917907714844e-01
-3.519645035266876221e-01
-5.334379076957702637e-01
-8.088661432266235352e-01
-4.056607484817504883e-01
-7.691141366958618164e-01
-4.940623641014099121e-01
-2.819303572177886963e-01
7.578732967376708984e-01
-4.585759639739990234e-01
-1.315827250480651855e+00
-8.170543909072875977e-01
-5.715919733047485352e-01
-3.823761045932769775e-01
-9.246556162834167480e-01
5.279722213745117188e-01
4.862554967403411865e-01
-8.823693990707397461e-01
5.863601565361022949e-01
1.430928111076354980e-01
5.785692334175109863e-01
-4.202771186828613281e-01
-3.690252453088760376e-02
-7.607378959655761719e-01
-1.144152805209159851e-01
-9.728869199752807617e-01
5.214710831642150879e-01
-3.965437412261962891e-02
3.817507624626159668e-02
-7.448964118957519531e-01
-9.699191451072692871e-01
-1.043244242668151855e+00
-7.135616540908813477e-01
-8.046863079071044922e-01
-9.143471717834472656e-01
2.889382243156433105e-01
6.975879073143005371e-01
-6.657664775848388672e-01
-3.928316831588745117e-01
-4.308417439460754395e-02
-5.583298802375793457e-01
-1.000503063201904297e+00
1.036229252815246582e+00
-9.528196454048156738e-01
-8.502375483512878418e-01
-1.426968425512313843e-01
-8.123521804809570312e-01
-8.042523860931396484e-01
-4.811300039291381836e-01
-4.505289793014526367e-01
6.778126955032348633e-01
1.005972027778625488e+00
5.928819179534912109e-01
-3.853103816509246826e-01
-2.895605564117431641e-01
-3.542111515998840332e-01
1.516528427600860596e-01
-6.685621738433837891e-01
-1.411848664283752441e-01
-1.012079119682312012e-01
-3.913924694061279297e-01
-2.803038060665130615e-02
-4.998090863227844238e-02
2.393238842487335205e-01
-8.165194988250732422e-01
-2.150295823812484741e-01
-8.258512616157531738e-02
1.525892913341522217e-01
9.083887338638305664e-01
1.095637440681457520e+00
6.168720722198486328e-01
8.458497524261474609e-01
-2.746484577655792236e-01
-3.557212948799133301e-01
-9.900569319725036621e-01
-1.830046623945236206e-01
-7.819571495056152344e-01
-3.061144649982452393e-01
-3.371642231941223145e-01
-3.932174444198608398e-01
-3.073463141918182373e-01
-4.325025081634521484e-01
-7.463180422782897949e-01
-4.171815812587738037e-01
-6.984059214591979980e-01
-7.171717286109924316e-01
3.556073307991027832e-01
-8.767690658569335938e-01
3.801537156105041504e-01
4.934256672859191895e-01
9.115175008773803711e-01
2.499731481075286865e-01
3.747927546501159668e-01
-7.527631521224975586e-01
-3.648163080215454102e-01
-4.540462493896484375e-01
-1.230783462524414062e-01
-8.703087568283081055e-01
8.082695305347442627e-03
-1.096461117267608643e-01
-7.088700532913208008e-01
-1.023902654647827148e+00
-2.458213269710540771e-01
1.407312750816345215e-01
2.059809714555740356e-01
-7.908872365951538086e-01
7.342812418937683105e-02
4.508292675018310547e-02
6.559400558471679688e-01
-6.899124383926391602e-01
-6.580626964569091797e-01
-8.247531652450561523e-01
-8.810952901840209961e-01
-7.015393376350402832e-01
3.858950138092041016e-01
-1.421782970428466797e-01
5.215033888816833496e-01
3.948519825935363770e-01
-8.487555980682373047e-01
6.366260051727294922e-01
8.050973415374755859e-01
-1.356684207916259766e+00
-2.768130004405975342e-01
1.131482869386672974e-01
-1.915854960680007935e-01
-2.424507737159729004e-01
-5.824586749076843262e-02
3.769469261169433594e-02
1.409362256526947021e-01
-1.206121742725372314e-01
-5.222253501415252686e-02
1.036940574645996094e+00
-2.767561674118041992e-01
-4.521071910858154297e-01
5.200734138488769531e-01
2.076316177845001221e-01
4.140511751174926758e-01
-4.177039563655853271e-01
-3.591716885566711426e-01
-9.500602483749389648e-01
-7.477409243583679199e-01
-4.983234703540802002e-01
-4.443789720535278320e-01
-5.549507737159729004e-01
-6.396546363830566406e-01
-4.323250055313110352e-02
7.550023496150970459e-02
-5.266999602317810059e-01
2.435240149497985840e-02
-7.198795080184936523e-01
1.919865608215332031e-01
-1.021644473075866699e+00
-3.059752583503723145e-01
4.347302913665771484e-01
-3.969929814338684082e-01
-1.076665759086608887e+00
-9.217554330825805664e-01
-4.416255354881286621e-01
-7.659779787063598633e-01
3.778682053089141846e-01
3.645245432853698730e-01
2.843331396579742432e-01
4.010259211063385010e-01
9.999883919954299927e-02
-3.275275528430938721e-01
-5.117508172988891602e-01
-6.267585754394531250e-01
-3.482678532600402832e-01
-3.834057748317718506e-01
-1.102288126945495605e+00
-2.098457515239715576e-02
-6.554523706436157227e-01
7.357280254364013672e-01
4.971607923507690430e-01
-3.541982173919677734e-01
1.109183430671691895e-01
-8.871268033981323242e-01
-8.780047893524169922e-01
-4.520092010498046875e-01
-1.554522365331649780e-01
1.656986474990844727e-01
-4.964520931243896484e-01
3.077181577682495117e-01
-4.170931279659271240e-01
-4.341298639774322510e-01
-7.156081199645996094e-01
8.637336492538452148e-01
4.090548157691955566e-01
-7.187001705169677734e-01
-5.631135702133178711e-01
-3.045765757560729980e-01
-9.342366456985473633e-01
9.185216575860977173e-02
-5.476930141448974609e-01
-2.299578785896301270e-01
-1.566201150417327881e-01
-2.066375762224197388e-01
-1.048551559448242188e+00
4.506378173828125000e-01
-2.800144553184509277e-01
-6.475335359573364258e-01
-7.410261631011962891e-01
-1.004304051399230957e+00
-1.184959173202514648e+00
-8.402466773986816406e-01
-1.805883049964904785e-01
-3.993104100227355957e-01
-2.254090607166290283e-01
-3.388005495071411133e-01
-2.572120428085327148e-01
-6.067668795585632324e-01
-3.787791728973388672e-01
7.949997186660766602e-01
8.017867207527160645e-01
-4.120737910270690918e-01
-1.452888995409011841e-01
7.234873175621032715e-01
2.363034188747406006e-01
-6.213851571083068848e-01
-4.762114584445953369e-01
6.289376020431518555e-01
4.742553532123565674e-01
-8.324508070945739746e-01
-1.178528308868408203e+00
-1.050313234329223633e+00
-5.246845483779907227e-01
-7.160094380378723145e-01
-2.182761430740356445e-01
-6.404076218605041504e-01
8.368414640426635742e-02
3.640842437744140625e-02
5.004475116729736328e-01
7.545477747917175293e-01
3.379195332527160645e-01
-3.013357520103454590e-01
-4.394372403621673584e-01
-1.981604993343353271e-01
-1.354353725910186768e-01
1.064746618270874023e+00
6.440346837043762207e-01
6.403835415840148926e-01
4.596546292304992676e-01
-7.048223614692687988e-01
-9.643496870994567871e-01
5.220940709114074707e-01
-3.949142396450042725e-01
2.514314651489257812e-01
7.770277261734008789e-01
6.362297534942626953e-01
-6.507102847099304199e-01
-8.699566125869750977e-01
-3.229623734951019287e-01
-2.954705655574798584e-01
-5.426056385040283203e-01
-8.704763650894165039e-02
-1.351309716701507568e-01
-2.348503768444061279e-01
-5.704202055931091309e-01
-8.060493469238281250e-01
1.728396713733673096e-01
-3.298098444938659668e-01
-3.124351203441619873e-01
-7.879167199134826660e-01
3.242181837558746338e-01
5.292574763298034668e-01
-9.969530105590820312e-01
5.107558965682983398e-01
-1.288242936134338379e-01
-3.382134437561035156e-02
2.038878202438354492e-02
-2.791177630424499512e-01
-7.797465324401855469e-01
-1.037719488143920898e+00
2.111502438783645630e-01
-1.932856440544128418e-01
7.686284780502319336e-01
-9.866424798965454102e-01
1.168920040130615234e+00
-8.937143087387084961e-01
3.400031030178070068e-01
5.425182580947875977e-01
-7.951507568359375000e-01
6.537697315216064453e-01
7.628539800643920898e-01
-5.997638702392578125e-01
-7.947277426719665527e-01
-6.328107118606567383e-01
3.152480721473693848e-02
-7.613483071327209473e-01
-1.110563874244689941e+00
-2.340996265411376953e-02
6.406217813491821289e-02
-1.503669023513793945e-01
3.449222445487976074e-01
2.601038813591003418e-01
-1.000424146652221680e+00
1.483036577701568604e-01
1.221585273742675781e-02
-9.566318988800048828e-01
5.395749807357788086e-01
4.945496022701263428e-01
-5.820866227149963379e-01
4.221732914447784424e-01
-2.093418240547180176e-01
9.289561212062835693e-02
-8.712223768234252930e-01
-1.037041425704956055e+00
-1.026557385921478271e-01
9.129548072814941406e-02
-5.808876752853393555e-01
-3.414906859397888184e-01
-1.055902957916259766e+00
-7.145664691925048828e-01
-8.638898730278015137e-01
-1.670013666152954102e-01
-6.766964197158813477e-01
-2.188974618911743164e-01
-5.765411853790283203e-01
-4.720847010612487793e-01
-3.455728292465209961e-01
-8.266022801399230957e-01
-4.135069251060485840e-01
-9.109327793121337891e-01
-1.505383551120758057e-01
-1.320679187774658203e-01
-2.721340656280517578e-01
-2.453586757183074951e-01
-5.526355504989624023e-01
-7.499097585678100586e-01
-8.504106998443603516e-01
-4.908795356750488281e-01
9.418374300003051758e-02
-1.208386659622192383e+00
-1.245494604110717773e+00
-8.341526985168457031e-01
-2.670839726924896240e-01
-7.473283410072326660e-01
1.304540317505598068e-02
-8.278381228446960449e-01
2.115018963813781738e-01
-7.170906066894531250e-01
-4.171670377254486084e-01
-6.785531044006347656e-01
-4.760600626468658447e-01
-6.240651607513427734e-01
-2.265616208314895630e-01
-1.048112869262695312e+00
-1.227063179016113281e+00
-6.954850256443023682e-02
1.046808481216430664e+00
-2.153372168540954590e-01
-7.255490422248840332e-01
-2.385879456996917725e-01
-5.223641395568847656e-01
-6.879442930221557617e-02
-1.438526064157485962e-01
1.250347122550010681e-03
-1.070469975471496582e+00
-5.897426605224609375e-01
-3.097133636474609375e-01
-2.465189397335052490e-01
2.663561403751373291e-01
7.957445830106735229e-02
-5.075634717941284180e-01
-2.494015097618103027e-01
-5.632733702659606934e-01
-9.373308420181274414e-01
8.763569593429565430e-01
-9.776605367660522461e-01
-8.650363087654113770e-01
-6.276092529296875000e-01
-2.024558782577514648e-01
-3.048385977745056152e-01
7.284243404865264893e-02
3.831824064254760742e-01
-8.037296533584594727e-01
-4.538136720657348633e-01
1.225841522216796875e+00
-7.360103726387023926e-01
1.230110377073287964e-01
4.571829736232757568e-01
-9.327415376901626587e-02
-2.563228011131286621e-01
-1.855869144201278687e-01
5.606892704963684082e-01
2.709735929965972900e-01
-7.375555038452148438e-01
-9.681549668312072754e-02
-1.082883596420288086e+00
7.711097598075866699e-01
-8.937841653823852539e-01
-2.361442744731903076e-01
4.837376475334167480e-01
-9.556884765625000000e-01
-2.909086644649505615e-01
4.676243066787719727e-01
3.124852776527404785e-01
-7.429386377334594727e-01
-2.011006474494934082e-01
4.234378933906555176e-01
-2.612338662147521973e-01
-2.639181911945343018e-01
4.105979204177856445e-02
-8.557194471359252930e-01
-1.428060829639434814e-01
2.289235591888427734e-01
3.602772951126098633e-02
-2.538098692893981934e-01
-7.772264480590820312e-01
-3.440813422203063965e-01
1.016770362854003906e+00
4.383825659751892090e-01
-5.199067592620849609e-01
2.753632068634033203e-01
3.634823858737945557e-01
-1.110511064529418945e+00
-1.342772841453552246e-01
1.220597326755523682e-01
-1.600857079029083252e-01
-8.736018538475036621e-01
-2.911575436592102051e-01
2.542168796062469482e-01
-6.670544147491455078e-01
-3.711088597774505615e-01
1.869987249374389648e-01
2.772732377052307129e-01
2.289463877677917480e-01
-6.722582578659057617e-01
-6.910673379898071289e-01
-6.191495060920715332e-01
2.099217921495437622e-01
-3.894584774971008301e-01
-9.007524251937866211e-01
-3.674185872077941895e-01
2.835756540298461914e-01
-2.049743086099624634e-01
-3.616307377815246582e-01
6.826221942901611328e-01
-1.716140508651733398e-01
-4.435247480869293213e-01
3.856292963027954102e-01
-1.624695956707000732e-01
-6.211668252944946289e-01
-4.634796380996704102e-01
1.973987519741058350e-01
1.179504990577697754e-01
-3.635959327220916748e-01
-7.931841611862182617e-01
4.670248925685882568e-02
-7.291603088378906250e-01
-4.581196308135986328e-01
-7.248331308364868164e-01
4.350399971008300781e-01
-3.247008919715881348e-01
-4.276805520057678223e-01
-7.107505202293395996e-01
4.422682523727416992e-02
-7.417744398117065430e-02
-2.798929810523986816e-01
1.560133695602416992e-01
-4.662636518478393555e-01
-1.263420581817626953e-01
3.742689490318298340e-01
1.666086763143539429e-01
-5.416979789733886719e-01
-5.501102209091186523e-01
-1.265241622924804688e+00
-6.211250424385070801e-01
4.404556751251220703e-02
-3.189927935600280762e-01
-8.303948640823364258e-01
-3.504541516304016113e-02
-4.733694791793823242e-01
1.659199148416519165e-01
-3.279357552528381348e-01
-1.328562140464782715e+00
-8.794766664505004883e-01
-4.232035279273986816e-01
-1.754589974880218506e-01
-2.115977853536605835e-01
1.732463985681533813e-01
2.901074588298797607e-01
-1.182108283042907715e+00
7.362354993820190430e-01
-2.502684593200683594e-01
-1.167024224996566772e-01
-3.057147562503814697e-02
-1.669771820306777954e-01
2.191420793533325195e-01
-7.689472436904907227e-01
-1.957322061061859131e-01
-9.965829849243164062e-01
7.679091095924377441e-01
1.164150714874267578e+00
-4.943457841873168945e-01
-4.596968889236450195e-01
-5.453801155090332031e-01
-7.448443770408630371e-01
-1.145510673522949219e+00
-1.133388519287109375e+00
1.507157683372497559e-01
-2.047787606716156006e-02
3.532589673995971680e-01
-8.501862883567810059e-01
-9.783837795257568359e-01
-7.200688123703002930e-01
-5.590906739234924316e-01
-3.086875379085540771e-01
-2.224228978157043457e-01
-4.608448743820190430e-01
-6.864349842071533203e-01
-9.423747062683105469e-01
-5.093369260430335999e-02
5.819451808929443359e-02
4.517007768154144287e-01
-5.820345282554626465e-01
-7.348920404911041260e-02
-1.255581378936767578e-01
-6.599530577659606934e-01
9.109994173049926758e-01
7.170107364654541016e-01
6.586531996726989746e-01
-5.131727457046508789e-01
-7.222583293914794922e-01
-1.016782164573669434e+00
8.484004139900207520e-01
-1.199291706085205078e+00
-9.671553373336791992e-01
2.832622230052947998e-01
-6.528232991695404053e-02
-4.501582086086273193e-01
7.898784279823303223e-01
6.228792667388916016e-01
5.635430812835693359e-01
7.663282155990600586e-01
1.197172403335571289e-01
-5.357176661491394043e-01
1.470209062099456787e-01
-4.874841570854187012e-01
-5.519707202911376953e-01
-3.022711575031280518e-01
1.200837790966033936e-01
-8.302251696586608887e-01
-9.955694079399108887e-01
-8.570194244384765625e-01
-3.018574118614196777e-01
-5.717688798904418945e-01
-5.296757221221923828e-01
-3.035021424293518066e-01
-4.433811306953430176e-01
2.461916208267211914e-02
4.738092422485351562e-01
-4.957652390003204346e-01
-6.401769518852233887e-01
-1.176804304122924805e-01
-6.816521286964416504e-02
1.058090090751647949e+00
7.919783592224121094e-01
-1.155262589454650879e+00
-1.144599437713623047e+00
-7.091917991638183594e-01
-2.315258681774139404e-01
-7.516645193099975586e-01
-5.387920141220092773e-01
-3.733637332916259766e-01
8.715640306472778320e-01
3.481614589691162109e-02
-6.327704191207885742e-01
1.668496131896972656e-01
-1.835872530937194824e-01
-8.953185677528381348e-01
3.780959844589233398e-01
-3.362800478935241699e-01
-7.673296332359313965e-01
-6.085599660873413086e-01
8.851540088653564453e-02
-2.739566564559936523e-01
-1.963551342487335205e-01
2.829022146761417389e-02
1.492524445056915283e-01
-2.053561657667160034e-01
8.563916683197021484e-01
4.801281094551086426e-01
2.298612892627716064e-01
2.912378609180450439e-01
-8.282725512981414795e-02
-6.818754076957702637e-01
-1.464178800582885742e+00
-5.698649883270263672e-01
-8.127009272575378418e-01
-9.526278972625732422e-01
9.790247678756713867e-02
-4.565894603729248047e-02
-1.034864485263824463e-01
-3.309217393398284912e-01
-1.701987981796264648e-01
-7.141498327255249023e-01
-2.461288273334503174e-01
3.806819915771484375e-01
-5.883359313011169434e-01
-1.395803987979888916e-01
-1.901350617408752441e-01
-7.057040929794311523e-02
-1.238657310605049133e-01
-6.890701055526733398e-01
-1.035556793212890625e-01
1.039616763591766357e-04
-6.899077296257019043e-01
-5.411891937255859375e-01
-6.570239663124084473e-01
4.867306947708129883e-01
4.411661326885223389e-01
5.005221366882324219e-01
-6.238870620727539062e-01
3.919672966003417969e-01
2.347837686538696289e-01
-8.505676984786987305e-01
2.863414287567138672e-01
2.133802771568298340e-01
-4.233070909976959229e-01
-1.960980892181396484e-02
-3.173980116844177246e-02
2.971800565719604492e-01
4.311430454254150391e-02
2.353890538215637207e-01
-1.296200603246688843e-01
-9.777932167053222656e-01
7.289358973503112793e-02
-8.506689667701721191e-01
6.545014381408691406e-01
3.180921077728271484e-02
1.877379417419433594e-01
5.558235943317413330e-02
2.704085409641265869e-01
-9.460273385047912598e-02
-2.660957574844360352e-01
-8.168411254882812500e-01
-6.210187077522277832e-01
-7.870005369186401367e-01
-5.870686173439025879e-01
2.397902309894561768e-01
-8.293406963348388672e-01
-2.117874920368194580e-01
5.433371067047119141e-01
4.563974738121032715e-01
7.774491608142852783e-02
3.319493830204010010e-01
-4.838557243347167969e-01
-2.209090292453765869e-01
-6.940648555755615234e-01
-1.293001890182495117e+00
1.950869858264923096e-01
-1.993859112262725830e-01
-8.141931295394897461e-01
-5.762193202972412109e-01
-9.383856058120727539e-01
-2.456032335758209229e-01
-6.128872036933898926e-01
-5.967265963554382324e-01
-4.143026769161224365e-01
2.500879764556884766e-01
-4.917925596237182617e-01
-5.212614536285400391e-01
-1.001759767532348633e-01
-5.252969861030578613e-01
-5.443095564842224121e-01
-4.525269269943237305e-01
-1.275205463171005249e-01
4.474596381187438965e-01
-2.744719386100769043e-01
-9.647242426872253418e-01
-2.064839899539947510e-01
3.414511680603027344e-01
1.366126894950866699e+00
-2.540323734283447266e-01
-9.602662920951843262e-01
-2.735481858253479004e-01
-1.642921417951583862e-01
-5.626109242439270020e-01
-5.807001590728759766e-01
-2.979427874088287354e-01
4.570760726928710938e-01
4.242141544818878174e-01
1.412872076034545898e-01
-8.591860532760620117e-01
9.101893305778503418e-01
-5.568187236785888672e-01
-4.031291306018829346e-01
-5.519493222236633301e-01
-3.452007174491882324e-01
-1.187397718429565430e+00
-1.011472195386886597e-01
7.641428112983703613e-01
2.317577749490737915e-01
5.862473249435424805e-01
6.007540225982666016e-01
-4.828900098800659180e-01
1.039384305477142334e-01
-9.813684225082397461e-02
-3.203715980052947998e-01
-5.010370612144470215e-01
-3.304035216569900513e-02
-9.683522582054138184e-01
-5.968936681747436523e-01
-4.245286583900451660e-01
-1.004944682121276855e+00
-1.137014865875244141e+00
-3.998132944107055664e-01
-4.175818264484405518e-01
-5.871340036392211914e-01
-4.693791866302490234e-01
7.852029800415039062e-02
-2.324093580245971680e-01
-8.520749807357788086e-01
-5.075536370277404785e-01
-2.547764778137207031e-01
-2.154768556356430054e-01
7.394634187221527100e-02
-2.622522115707397461e-01
-2.457187771797180176e-01
-6.318142414093017578e-01
-5.696501731872558594e-01
-6.320872902870178223e-01
-3.786123394966125488e-01
-7.318064570426940918e-02
-1.205973625183105469e-01
1.030870527029037476e-01
-9.043501317501068115e-02
3.012244403362274170e-01
-9.239602088928222656e-01
-3.132825493812561035e-01
6.200100183486938477e-01
-7.198693752288818359e-01
-4.114169478416442871e-01
1.558222621679306030e-02
-4.054547846317291260e-02
2.689697742462158203e-01
2.088747024536132812e-01
1.254537701606750488e-01
3.657555282115936279e-01
-8.701813220977783203e-01
-1.697455346584320068e-01
1.349458992481231689e-01
3.635413050651550293e-01
-9.383583068847656250e-01
8.437946438789367676e-02
-1.562663018703460693e-01
-5.942022204399108887e-01
-6.746231317520141602e-01
-7.940564751625061035e-01
2.545529603958129883e-01
-4.623360186815261841e-02
-2.004825174808502197e-01
3.725678473711013794e-02
-1.017953082919120789e-01
2.016289383172988892e-01
-3.830233812332153320e-01
-7.039049863815307617e-01
-1.486290693283081055e-01
5.492523908615112305e-01
-6.533545255661010742e-01
2.640880942344665527e-01
-2.905034422874450684e-01
-2.159040868282318115e-01
5.686596035957336426e-02
1.869946718215942383e-01
-1.450442075729370117e-01
-5.817618966102600098e-01
-8.218647241592407227e-01
-7.257814407348632812e-01
-5.005009770393371582e-01
-1.498267054557800293e-01
-4.392972290515899658e-01
-3.789528012275695801e-01
-6.808180809020996094e-01
-7.093706727027893066e-01
-6.381841301918029785e-01
-2.575359493494033813e-02
-8.304346203804016113e-01
-3.950089216232299805e-01
5.762073397636413574e-01
8.413688838481903076e-02
-1.616424620151519775e-01
-6.618753671646118164e-01
-3.188394308090209961e-01
-1.807152330875396729e-01
-1.246289461851119995e-01
-1.086887866258621216e-01
-1.580074280500411987e-01
-4.498080015182495117e-01
-5.996008515357971191e-01
-6.373953223228454590e-01
-2.358064055442810059e-01
-5.266519784927368164e-01
-9.180370569229125977e-01
1.913163810968399048e-03
1.508781015872955322e-01
5.110586062073707581e-02
6.332084536552429199e-02
1.097936332225799561e-01
-1.649050116539001465e-01
-9.112362861633300781e-01
-2.101391404867172241e-01
1.038324385881423950e-01
-6.143065690994262695e-01
3.861746937036514282e-02
-3.170515894889831543e-01
-4.645869731903076172e-01
-3.140785694122314453e-01
-5.604040026664733887e-01
5.273177623748779297e-01
4.279863834381103516e-02
-1.575409770011901855e-01
-5.638135671615600586e-01
-3.831793665885925293e-01
-1.296149969100952148e+00
3.857416510581970215e-01
-2.660598754882812500e-01
-2.216214872896671295e-02
5.679305791854858398e-01
-9.919704198837280273e-01
-7.949094772338867188e-01
-6.082550287246704102e-01
-5.512747764587402344e-01
-3.064515888690948486e-01
-4.017078280448913574e-01
-4.108358323574066162e-01
-6.509673595428466797e-02
5.958144664764404297e-01
2.319270074367523193e-01
-6.296695470809936523e-01
4.076798856258392334e-01
-2.501271069049835205e-01
-8.565089106559753418e-01
-7.203321456909179688e-01
-8.303259611129760742e-01
-6.720006465911865234e-01
-5.235843658447265625e-01
-1.035229206085205078e+00
2.035109400749206543e-01
3.678101599216461182e-01
6.762761473655700684e-01
-3.860517442226409912e-01
-4.407861828804016113e-02
1.015114784240722656e-02
-8.764934539794921875e-01
1.531422138214111328e-02
-4.884430393576622009e-02
-6.660147309303283691e-01
-8.972797989845275879e-01
1.296294331550598145e-01
5.946143865585327148e-01
-3.190701007843017578e-01
-1.071606397628784180e+00
-4.936057925224304199e-01
-9.312517046928405762e-01
6.806957125663757324e-01
2.548090517520904541e-01
-6.392390727996826172e-01
-5.589965730905532837e-02
-7.281184792518615723e-01
-1.143899083137512207e+00
-1.425264477729797363e-01
-7.184225916862487793e-01
2.245174497365951538e-01
-8.022862672805786133e-01
1.127017438411712646e-01
4.141446352005004883e-01
2.568399608135223389e-01
-1.482371538877487183e-01
-6.098743081092834473e-01
-2.839872241020202637e-02
-4.405412077903747559e-01
1.381849348545074463e-01
2.658160328865051270e-01
-1.015862464904785156e+00
-6.086437702178955078e-01
-1.875748485326766968e-02
-2.070873975753784180e-01
-1.882978677749633789e-01
-1.113704323768615723e+00
1.058678478002548218e-01
-9.054874181747436523e-01
-9.764516353607177734e-01
-7.223889827728271484e-01
7.714666724205017090e-01
-6.934685260057449341e-02
-8.442133665084838867e-01
-5.491095185279846191e-01
-1.067294552922248840e-01
-4.001219272613525391e-01
4.153689146041870117e-01
3.603352010250091553e-01
-8.253750205039978027e-01
-1.299369812011718750e+00
-8.411714434623718262e-01
-6.686740517616271973e-01
-4.264215826988220215e-01
-3.720436096191406250e-01
-4.863607585430145264e-01
3.723312914371490479e-01
3.440958261489868164e-01
-7.939567565917968750e-01
-7.287949323654174805e-01
-7.196826934814453125e-01
-3.216374516487121582e-01
-8.872764110565185547e-01
-1.723599880933761597e-01
-5.671463906764984131e-02
-1.572971940040588379e-01
9.680430889129638672e-01
-7.637324333190917969e-01
-4.299201071262359619e-01
8.397891521453857422e-01
-7.113251686096191406e-01
4.571427702903747559e-01
-5.928540229797363281e-02
-6.394460201263427734e-01
1.063111543655395508e+00
-5.949409604072570801e-01
-3.598302006721496582e-01
6.342890858650207520e-01
-8.598328232765197754e-01
-2.487481832504272461e-01
6.538679599761962891e-01
4.223124384880065918e-01
-2.732261419296264648e-01
-2.595870196819305420e-01
8.410776257514953613e-01
-2.423174977302551270e-01
-6.634718179702758789e-01
-4.342405200004577637e-01
-6.471945047378540039e-01
-1.026689052581787109e+00
5.821092128753662109e-01
4.302868545055389404e-01
-7.687388658523559570e-01
-9.055582284927368164e-01
-4.824071824550628662e-01
5.413055419921875000e-03
3.177989721298217773e-01
-1.088818788528442383e+00
7.057530879974365234e-01
-1.201251149177551270e-01
3.201161026954650879e-01
3.438372313976287842e-01
-9.201983809471130371e-01
-4.782745838165283203e-01
-7.812273502349853516e-01
8.023288846015930176e-01
-7.338196039199829102e-01
-5.016213655471801758e-01
-1.094218969345092773e+00
-6.194185018539428711e-01
-7.320086956024169922e-01
1.373395621776580811e-01
3.969231843948364258e-01
5.865268707275390625e-01
-1.865852177143096924e-01
-3.335159718990325928e-01
3.374041914939880371e-01
-7.656973004341125488e-01
-1.408080458641052246e-01
-6.588045954704284668e-01
-9.804071187973022461e-01
7.070892453193664551e-01
-3.445694446563720703e-01
-6.736692786216735840e-01
-7.016078233718872070e-01
4.635613560676574707e-01
-1.101355195045471191e+00
-4.748193919658660889e-01
-7.674848437309265137e-01
-2.143009305000305176e-01
-1.066284418106079102e+00
-8.805437088012695312e-01
-2.648814916610717773e-01
-1.107483863830566406e+00
3.145562410354614258e-01
1.160792782902717590e-01
-6.633463501930236816e-02
-1.016204833984375000e+00
-6.219637989997863770e-01
2.884621024131774902e-01
-4.104214310646057129e-01
-7.083566486835479736e-02
2.936229705810546875e-01
-7.142440676689147949e-01
-7.897996306419372559e-01
-1.771380603313446045e-01
-5.064407587051391602e-01
-7.491246461868286133e-01
-9.447099268436431885e-02
-5.250841379165649414e-02
4.537765681743621826e-01
-2.011687904596328735e-01
5.201885104179382324e-01
2.368405461311340332e-01
3.931283950805664062e-03
-3.186118304729461670e-01
-3.329429030418395996e-02
-5.454207658767700195e-01
-5.651524662971496582e-01
1.287157386541366577e-01
-7.372026443481445312e-01
-1.157723307609558105e+00
-1.031049251556396484e+00
-5.357347428798675537e-02
2.019546926021575928e-01
-3.973351716995239258e-01
8.902037739753723145e-01
7.623796463012695312e-01
4.256988167762756348e-01
-2.936768531799316406e-01
-1.238132119178771973e-01
-5.806576609611511230e-01
3.919461667537689209e-01
-3.346129059791564941e-01
1.321164518594741821e-01
-4.570889472961425781e-02
-8.953520059585571289e-01
3.039650917053222656e-01
6.610869169235229492e-01
7.285052537918090820e-01
3.976098895072937012e-01
-3.179578185081481934e-01
1.444392800331115723e-01
-7.903722524642944336e-01
-4.742960631847381592e-01
1.516724471002817154e-02
-5.007190108299255371e-01
-3.775423169136047363e-01
4.031811654567718506e-01
-2.221384346485137939e-01
-3.691662549972534180e-01
-1.373465657234191895e-01
8.919215202331542969e-02
-5.786220729351043701e-02
5.769518017768859863e-01
1.168170690536499023e+00
2.323366999626159668e-01
7.455223202705383301e-01
-2.833912372589111328e-01
1.612827777862548828e-01
5.102771520614624023e-01
-7.784636616706848145e-01
2.232465147972106934e-01
3.760571479797363281e-01
-1.125904083251953125e+00
3.404229879379272461e-01
1.823395639657974243e-01
-4.646593928337097168e-01
-5.573971271514892578e-01
-4.537077546119689941e-01
-3.368264138698577881e-01
9.082292318344116211e-01
3.589834272861480713e-01
-3.548113107681274414e-01
-9.757470488548278809e-01
7.402618527412414551e-01
6.146408617496490479e-02
-2.429555952548980713e-01
-4.583652615547180176e-01
-9.068959951400756836e-01
-2.541722655296325684e-01
-1.692441999912261963e-01
-6.060633063316345215e-01
-2.013319730758666992e-01
8.010119199752807617e-02
4.209170937538146973e-01
-1.362952739000320435e-01
-3.247952759265899658e-01
-4.029559195041656494e-01
-2.904760241508483887e-01
-4.010425209999084473e-01
-3.270993828773498535e-01
1.002570271492004395e+00
5.926684737205505371e-01
3.162516355514526367e-01
-3.505661785602569580e-01
-3.796281516551971436e-01
-5.205157995223999023e-01
-6.179340481758117676e-01
-3.425110876560211182e-01
-1.492821574211120605e-01
3.232956305146217346e-02
1.233021259307861328e+00
-6.669098138809204102e-01
-4.576994776725769043e-01
-6.126773357391357422e-01
-3.696248829364776611e-01
-1.040236592292785645e+00
-1.141409993171691895e+00
4.033222794532775879e-01
-7.986637949943542480e-02
1.283854246139526367e-03
3.682984113693237305e-01
-5.544191598892211914e-02
-3.194781541824340820e-01
6.580118834972381592e-02
-1.113997697830200195e+00
-4.360865354537963867e-01
-6.252840161323547363e-01
-3.897431790828704834e-01
1.037692308425903320e+00
-3.806086182594299316e-01
-1.196313023567199707e+00
2.047449797391891479e-01
-6.173896789550781250e-01
-4.471164941787719727e-01
-6.877815127372741699e-01
8.346740901470184326e-02
-1.212808012962341309e+00
-4.739640951156616211e-01
2.849535644054412842e-02
-9.105084538459777832e-01
-8.225566744804382324e-01
-1.161128282546997070e-03
-3.423789441585540771e-01
-2.437503337860107422e-01
1.432928442955017090e-02
-1.001889586448669434e+00
-4.892726242542266846e-01
4.648143649101257324e-01
1.444346010684967041e-01
-5.017802119255065918e-02
-4.229876399040222168e-02
-5.349783897399902344e-01
-1.192699670791625977e+00
-6.688491106033325195e-01
-6.703066825866699219e-01
-2.174463570117950439e-01
-5.133700966835021973e-01
-7.443051338195800781e-01
-1.256771922111511230e+00
-6.829495429992675781e-01
-6.861087083816528320e-01
-3.187003731727600098e-01
-2.033458650112152100e-02
3.034693598747253418e-01
-1.955404579639434814e-01
2.748163044452667236e-01
-7.876018285751342773e-01
-1.947601437568664551e-01
-5.692181736230850220e-02
-3.635092824697494507e-02
-5.262425541877746582e-02
-5.103275179862976074e-01
-9.048225879669189453e-01
-6.478464007377624512e-01
1.809425204992294312e-01
-4.633994698524475098e-01
-4.918609857559204102e-01
-9.597401618957519531e-01
1.934813261032104492e-01
1.652107685804367065e-01
-1.140119582414627075e-01
-5.764188766479492188e-01
-1.681318879127502441e-01
-5.924869179725646973e-01
2.001887708902359009e-01
-4.094527959823608398e-01
-4.444678425788879395e-01
3.422316908836364746e-02
-3.000122010707855225e-01
5.267087817192077637e-01
-8.394637107849121094e-01
-1.076952219009399414e+00
8.833616971969604492e-02
-9.575097560882568359e-01
-7.513176798820495605e-01
1.844910681247711182e-01
-6.793766021728515625e-01
-1.011016488075256348e+00
-1.347113847732543945e-01
-3.526307940483093262e-01
2.182094752788543701e-02
-8.040530681610107422e-01
-7.998905181884765625e-01
2.304038405418395996e-01
-6.337990760803222656e-01
-6.828336417675018311e-02
-3.332371711730957031e-01
-5.778397917747497559e-01
-7.434886693954467773e-01
-5.794215202331542969e-01
3.155729770660400391e-01
-8.251904249191284180e-01
-8.356951475143432617e-01
-9.133654832839965820e-01
-1.117355823516845703e-01
-3.025634288787841797e-01
-2.116073220968246460e-01
-4.336040616035461426e-01
-1.052862405776977539e+00
3.269895911216735840e-01
-1.014283895492553711e+00
6.205712258815765381e-02
-1.803774982690811157e-01
-3.412630558013916016e-01
3.566859364509582520e-01
-1.039966344833374023e+00
-1.198207497596740723e+00
-4.301409721374511719e-01
3.395736813545227051e-01
-3.323409706354141235e-03
-6.048277616500854492e-01
4.473899006843566895e-01
-2.658676803112030029e-01
-7.483633756637573242e-01
-4.400838017463684082e-01
-6.696470975875854492e-01
4.224782288074493408e-01
-7.441941648721694946e-02
1.078034415841102600e-01
-9.948889613151550293e-01
-8.902400732040405273e-01
-4.710647761821746826e-01
-6.086254119873046875e-01
-7.319393157958984375e-01
-8.641750812530517578e-01
-7.307927608489990234e-01
-3.775227665901184082e-01
-3.734755814075469971e-01
-4.596619009971618652e-01
-5.013009309768676758e-01
-4.743497967720031738e-01
-6.573811769485473633e-01
-8.988088965415954590e-01
2.139842212200164795e-01
-1.038768291473388672e+00
-5.978264808654785156e-01
-7.721147537231445312e-01
-5.891708731651306152e-01
-1.114017963409423828e-01
3.114321231842041016e-01
3.915613889694213867e-02
1.634795069694519043e-01
2.180164754390716553e-01
6.055735349655151367e-01
-6.216569542884826660e-01
-2.604003548622131348e-01
-7.049172520637512207e-01
-3.145091235637664795e-01
1.256774365901947021e-01
-8.618655055761337280e-02
1.247542262077331543e+00
-5.389775037765502930e-01
-6.332552433013916016e-01
-6.784082651138305664e-01
-3.113665282726287842e-01
-1.199393391609191895e+00
-9.907305240631103516e-02
-1.286611557006835938e-01
6.495600938796997070e-01
5.592802762985229492e-01
-5.825786590576171875e-01
-3.312000036239624023e-01
-1.015833616256713867e+00
-3.349955081939697266e-01
-2.731186747550964355e-01
5.887638330459594727e-01
-9.405742883682250977e-01
-4.798820614814758301e-02
-1.167860627174377441e+00
-1.142654657363891602e+00
3.421228826045989990e-01
-6.727920472621917725e-02
-4.414332509040832520e-01
-3.853713274002075195e-01
-7.137655615806579590e-01
2.764665484428405762e-01
5.461163520812988281e-01
-8.059127330780029297e-01
-3.764518499374389648e-01
-5.199286341667175293e-01
-4.063356816768646240e-01
3.656715750694274902e-01
-3.671575784683227539e-01
5.343804359436035156e-01
1.101534366607666016e-01
-4.318635761737823486e-01
-7.857195138931274414e-01
-7.463197708129882812e-01
3.523963689804077148e-01
-4.795050621032714844e-01
-3.526093661785125732e-01
6.870749592781066895e-02
-6.215273737907409668e-01
-9.405044913291931152e-01
7.687877416610717773e-01
1.331542730331420898e-01
-7.010543346405029297e-01
6.684068441390991211e-01
-3.121519088745117188e-01
-4.635214209556579590e-01
-3.150135278701782227e-03
1.012008547782897949e+00
6.656955480575561523e-01
-2.670602798461914062e-01
-8.368788361549377441e-01
-8.962227702140808105e-01
-7.114762663841247559e-01
-1.275768429040908813e-01
-3.917890489101409912e-01
1.065745428204536438e-01
3.422043919563293457e-01
-4.033203423023223877e-02
-2.708435058593750000e-02
3.134473860263824463e-01
-6.062267422676086426e-01
-5.037607550621032715e-01
-4.288306236267089844e-01
-8.883920907974243164e-01
-2.163666784763336182e-01
-1.321419328451156616e-02
-3.202893435955047607e-01
8.631038665771484375e-02
-6.309862732887268066e-01
3.259559273719787598e-01
-2.677825093269348145e-01
-5.856245756149291992e-01
-9.091526865959167480e-01
-1.499122381210327148e-01
-1.733317971229553223e-01
-9.285460710525512695e-01
3.943750560283660889e-01
-7.686217427253723145e-01
6.721847653388977051e-01
1.138207912445068359e-01
2.172681242227554321e-01
7.393049001693725586e-01
-2.558854520320892334e-01
-2.518694698810577393e-01
-1.281161427497863770e+00
-3.853915631771087646e-02
-3.833017945289611816e-01
-4.514351189136505127e-01
-6.595643758773803711e-01
-6.063393950462341309e-01
7.610428333282470703e-02
8.210650086402893066e-02
4.125725030899047852e-01
3.914637267589569092e-01
2.049418985843658447e-01
-3.061068058013916016e-01
5.231422781944274902e-01
5.031018257141113281e-01
-2.879496812820434570e-01
-3.441551625728607178e-01
-5.143465399742126465e-01
1.994379907846450806e-01
-9.432548284530639648e-02
-5.176618695259094238e-02
-2.106604576110839844e-01
-1.150755047798156738e+00
6.277184486389160156e-01
-1.132633566856384277e+00
-4.852519929409027100e-01
-9.723123908042907715e-02
7.425529956817626953e-01
1.026174724102020264e-01
-4.876121878623962402e-01
-7.627602219581604004e-01
-9.069640636444091797e-01
-8.626731634140014648e-01
-2.995341122150421143e-01
-5.873044133186340332e-01
-7.357866168022155762e-01
-7.064002752304077148e-01
2.493480741977691650e-01
-5.945590138435363770e-01
-2.168509662151336670e-01
-2.148709297180175781e-01
-1.102669358253479004e+00
-9.035836458206176758e-01
-3.609381616115570068e-01
-5.090625286102294922e-01
-5.215967893600463867e-01
-3.563522398471832275e-01
-9.485441446304321289e-01
-9.696957468986511230e-01
3.030890226364135742e-01
-1.864456236362457275e-01
-4.623070359230041504e-02
-5.070315003395080566e-01
-3.777368366718292236e-01
1.012944579124450684e-01
-5.530413389205932617e-01
-8.386351466178894043e-01
-3.856294751167297363e-01
-4.639512896537780762e-01
-5.546874403953552246e-01
-5.783210396766662598e-01
-1.156122922897338867e+00
-5.187678933143615723e-01
3.017870783805847168e-01
-5.358754992485046387e-01
2.671696543693542480e-01
-3.662219643592834473e-01
-2.666006982326507568e-01
4.981574118137359619e-01
-9.340926408767700195e-01
-7.166802883148193359e-03
1.115041375160217285e-01
4.222985804080963135e-01
-3.872961997985839844e-01
3.672034144401550293e-01
3.341896533966064453e-01
3.078307211399078369e-01
-3.544893860816955566e-01
-9.418168067932128906e-01
1.530827432870864868e-01
1.089906990528106689e-01
-4.187223315238952637e-01
-1.553931832313537598e-02
1.573216617107391357e-01
-9.167775511741638184e-01
3.420291543006896973e-01
-7.467806339263916016e-03
-1.647432446479797363e-01
-3.763525187969207764e-02
-1.173003673553466797e+00
-4.675697684288024902e-01
-4.458966255187988281e-01
-1.914662867784500122e-02
-1.027225494384765625e+00
-7.712170481681823730e-01
1.547755599021911621e-01
6.925282478332519531e-01
-6.285687536001205444e-02
-1.771814227104187012e-01
-8.084495663642883301e-01
-7.480036616325378418e-01
-2.081743180751800537e-01
-7.595731616020202637e-01
2.623203396797180176e-02
-6.344590783119201660e-01
-9.876868724822998047e-01
-1.247317641973495483e-01
-2.904176712036132812e-01
-1.263844966888427734e-02
1.399987936019897461e-02
1.845176219940185547e-01
-3.655141294002532959e-01
-7.321814894676208496e-01
-2.447919547557830811e-02
5.454459786415100098e-01
-6.100581288337707520e-01
-1.684732139110565186e-01
-7.651340961456298828e-01
-3.031035363674163818e-01
1.916241496801376343e-01
-4.077857732772827148e-01
-8.614456653594970703e-01
-5.869194865226745605e-02
5.272505879402160645e-01
-1.378764063119888306e-01
-1.878762543201446533e-01
9.420818686485290527e-01
8.267141133546829224e-02
-4.803097844123840332e-01
-4.478576183319091797e-01
-8.751432895660400391e-01
-6.436482667922973633e-01
-1.081898450851440430e+00
-9.130976796150207520e-01
-2.672378420829772949e-01
-2.997583746910095215e-01
-5.322943925857543945e-01
-5.047220587730407715e-01
-9.393407106399536133e-01
-4.566971063613891602e-01
1.557667553424835205e-01
-1.288845837116241455e-01
-3.227397501468658447e-01
2.330972403287887573e-01
4.710749983787536621e-01
-3.958811461925506592e-01
-3.174313604831695557e-01
-3.074730038642883301e-01
-8.196823596954345703e-01
-2.025071829557418823e-01
-1.332922279834747314e-02
-3.865981101989746094e-02
-3.596080541610717773e-01
1.597081422805786133e-01
7.900027632713317871e-01
1.883709430694580078e-01
1.000821471214294434e+00
-3.691513836383819580e-01
-9.231129288673400879e-02
-6.329429745674133301e-01
-3.938279747962951660e-01
7.986080646514892578e-02
1.476487517356872559e-02
-6.276552677154541016e-01
3.864651620388031006e-01
6.543608903884887695e-01
3.943480551242828369e-01
-5.302195549011230469e-01
-1.783628165721893311e-01
6.569242477416992188e-01
1.217773258686065674e-01
-2.557073533535003662e-01
4.362275004386901855e-01
6.606574058532714844e-01
2.531036436557769775e-01
-1.582199186086654663e-01
1.983071118593215942e-02
-1.044649183750152588e-01
-5.016033649444580078e-01
-4.232997298240661621e-01
2.329232692718505859e-01
-6.371140480041503906e-04
5.045285224914550781e-01
7.708767652511596680e-01
-3.374048471450805664e-01
2.271947711706161499e-01
4.079659283161163330e-01
1.935123950242996216e-01
2.988997995853424072e-01
-5.937573909759521484e-01
1.883144676685333252e-01
5.721011757850646973e-01
1.782837510108947754e-02
-8.560795187950134277e-01
-1.050704568624496460e-01
-5.796440839767456055e-01
-6.566442251205444336e-01
2.901095151901245117e-02
-9.938219189643859863e-01
-2.321884036064147949e-01
-6.087681651115417480e-01
7.036653347313404083e-03
5.231708288192749023e-03
1.028606295585632324e-02
3.651031851768493652e-02
-2.622056305408477783e-01
-1.291268467903137207e-01
-6.133394241333007812e-01
-1.126239299774169922e+00
8.952670693397521973e-01
6.209553778171539307e-02
-2.772864997386932373e-01
4.220374226570129395e-01
-7.033762335777282715e-02
-1.411846745759248734e-02
4.810578227043151855e-01
1.569691598415374756e-01
-3.239074945449829102e-01
1.834183037281036377e-01
2.469409406185150146e-01
-8.410087823867797852e-01
-5.900012254714965820e-01
4.941728115081787109e-01
-3.480994105339050293e-01
5.282304883003234863e-01
1.056464314460754395e+00
1.324757039546966553e-01
6.817356348037719727e-01
1.556183397769927979e-01
-1.972585916519165039e-03
-7.039850950241088867e-02
7.286315560340881348e-01
-2.884569764137268066e-01
3.934741020202636719e-01
-2.715870141983032227e-01
1.773252785205841064e-01
-7.160386443138122559e-02
-3.160707354545593262e-01
-3.525692522525787354e-01
-5.871515274047851562e-01
-1.039279103279113770e+00
1.937404274940490723e-03
-2.416226267814636230e-01
-3.691917955875396729e-01
-6.764349937438964844e-01
2.077064514160156250e-01
-7.926602959632873535e-01
1.247299611568450928e-01
-1.742125153541564941e-01
-6.605553627014160156e-01
-3.159657716751098633e-01
-7.973963022232055664e-01
-7.135193347930908203e-01
-6.075620651245117188e-01
-1.475584805011749268e-01
-1.936524808406829834e-01
-6.646052598953247070e-01
-6.248138546943664551e-01
-4.913470745086669922e-01
-7.424002885818481445e-01
-6.370511054992675781e-01
-9.508516192436218262e-01
2.170231938362121582e-02
4.903853833675384521e-01
-1.163152933120727539e+00
2.206499278545379639e-01
6.521025300025939941e-01
-6.034250557422637939e-02
2.964436113834381104e-01
-1.550329029560089111e-01
-5.908752679824829102e-01
-1.363099664449691772e-01
-6.168927997350692749e-02
-2.464641928672790527e-01
7.168378829956054688e-01
-4.409540295600891113e-01
-2.111046314239501953e-01
-3.892938792705535889e-02
-9.916089177131652832e-01
-8.934273719787597656e-01
3.513234555721282959e-01
-5.390295386314392090e-01
1.833876371383666992e-01
-8.710716962814331055e-01
-6.494700312614440918e-01
5.558864474296569824e-01
-4.457263946533203125e-01
2.131225317716598511e-01
-4.795901179313659668e-01
-6.032621860504150391e-02
-7.911676168441772461e-01
3.894279524683952332e-02
-8.918386101722717285e-01
-1.244569301605224609e+00
-2.014161348342895508e-01
-6.236164569854736328e-01
-3.894093036651611328e-01
-5.180959701538085938e-01
-6.500327587127685547e-01
-6.073594689369201660e-01
-3.603252768516540527e-01
-1.385054290294647217e-01
-8.937051892280578613e-02
2.920931279659271240e-01
-2.700731158256530762e-01
-4.433733224868774414e-01
9.152442216873168945e-03
-9.556139707565307617e-01
-9.391350746154785156e-01
-7.671605348587036133e-01
-5.948671102523803711e-01
-6.608034372329711914e-01
-7.219852805137634277e-01
-8.201205730438232422e-02
3.586486279964447021e-01
1.548146307468414307e-01
-3.687091469764709473e-01
-9.846624732017517090e-02
-6.581099033355712891e-01
-2.647441625595092773e-01
-7.372531890869140625e-01
-8.395753502845764160e-01
6.365869939327239990e-02
3.654832243919372559e-01
4.643415808677673340e-01
6.981536000967025757e-02
-1.054385602474212646e-01
1.140162199735641479e-01
-4.992071390151977539e-01
-5.779903531074523926e-01
2.284364253282546997e-01
-7.045713663101196289e-01
7.995773553848266602e-01
-1.782947033643722534e-01
3.065067827701568604e-01
-4.132783412933349609e-02
-1.516168415546417236e-01
-1.068107604980468750e+00
3.349356353282928467e-01
-2.429604530334472656e-03
-1.047187209129333496e+00
-1.183681488037109375e-01
5.995322018861770630e-02
-6.079618930816650391e-01
4.779427051544189453e-01
2.109567224979400635e-01
5.525946617126464844e-02
-9.855693578720092773e-01
3.653316795825958252e-01
3.407362699508666992e-01
6.151172518730163574e-01
-2.372275292873382568e-02
-2.525851130485534668e-01
-2.493000030517578125e-01
-6.776862591505050659e-02
-4.260523021221160889e-01
-6.140080690383911133e-01
-1.188218832015991211e+00
-1.142872869968414307e-01
-5.361768603324890137e-02
1.217525601387023926e-01
7.944958806037902832e-01
-3.911208510398864746e-01
-4.037953019142150879e-01
-3.463053405284881592e-01
-7.874044179916381836e-01
-8.848060369491577148e-01
-2.699834108352661133e-02
5.962588787078857422e-01
3.145462870597839355e-01
2.564692497253417969e-01
-6.098625063896179199e-02
-5.236366391181945801e-01
1.374030411243438721e-01
-7.711347937583923340e-02
-9.702984690666198730e-01
5.505276322364807129e-01
-7.078468799591064453e-03
4.259377121925354004e-01
-5.605741143226623535e-01
7.363195419311523438e-01
4.034593999385833740e-01
5.427190065383911133e-01
3.203491494059562683e-02
-2.373849004507064819e-01
-2.330894768238067627e-02
1.722415983676910400e-01
-4.724072813987731934e-01
-1.536068171262741089e-01
-2.777237892150878906e-01
-7.534753680229187012e-01
-7.704761624336242676e-01
1.150211691856384277e-01
-1.478725671768188477e-02
3.937837481498718262e-01
-8.971196413040161133e-02
-4.563022851943969727e-01
3.064866065979003906e-01
-7.646818161010742188e-01
1.657131612300872803e-01
-4.134029150009155273e-02
-3.479861021041870117e-01
-2.047632932662963867e-01
-4.376805424690246582e-01
-6.805789470672607422e-01
5.444415807723999023e-01
1.670609414577484131e-01
6.396216154098510742e-02
2.529784440994262695e-01
4.629065394401550293e-01
3.995215892791748047e-02
-3.498830199241638184e-01
1.299330294132232666e-01
-1.668695360422134399e-01
-8.581689596176147461e-01
-4.608341753482818604e-01
-3.823462128639221191e-02
4.136137962341308594e-01
3.902978301048278809e-01
-7.939154505729675293e-01
8.563616871833801270e-01
-9.311687350273132324e-01
-1.581942141056060791e-01
-2.247902750968933105e-02
1.814548522233963013e-01
-6.558774113655090332e-01
-7.202888727188110352e-01
